{"model":{"layers":[{"inputLayerId":-1,"layerData":{"layer":{"id":0,"type":0,"size":5}}},{"inputLayerId":0,"layerData":{"layer":{"id":1,"type":3,"size":15,"inputSize":5,"inputWeight1":{"matrix":{"rows":5,"cols":15,"values":[0.4860000014305115,-0.7670000195503235,-0.10100000351667404,-0.3479999899864197,-0.13099999725818638,-0.5400000214576721,-0.9580000042915344,-0.8960000276565552,0.7509999871253967,0.4189999997615814,0.9179999828338624,0.09200000017881394,-0.3840000033378601,0.09000000357627869,0.8489999771118164,0.19599999487400056,0.6850000023841858,-0.9700000286102296,0.1720000058412552,0.24899999797344209,-0.4659999907016754,0.19099999964237217,0.6259999871253967,0.421999990940094,0.4009999930858612,-0.7730000019073486,0.7379999756813049,-0.5040000081062317,0.210999995470047,0.4050000011920929,0.23899999260902408,-0.15299999713897706,-0.7440000176429749,0.5139999985694885,-0.375,-0.7559999823570252,0.328000009059906,0.6869999766349793,-0.6800000071525574,0.5619999766349793,0.2549999952316284,0.7910000085830689,0.6050000190734863,0.7170000076293945,0.3540000021457672,0.2290000021457672,0.7739999890327454,-0.8149999976158142,-0.20999999344348908,-0.35499998927116396,0.6340000033378601,-0.5669999718666077,0.0820000022649765,-0.9169999957084656,-0.6290000081062317,0.8320000171661377,-0.019999999552965165,-0.4169999957084656,-0.1379999965429306,0.4169999957084656,-0.9900000095367432,-0.968999981880188,-0.8119999766349793,0.5540000200271606,-0.4070000052452088,-0.9980000257492064,-0.008999999612569809,-0.878000020980835,-0.17499999701976777,0.1469999998807907,-0.8759999871253967,-0.7409999966621399,0.8230000138282776,0.36800000071525576,0.4880000054836273]}},"inputWeight2":{"matrix":{"rows":5,"cols":15,"values":[0.4860000014305115,-0.7670000195503235,-0.10100000351667404,-0.3479999899864197,-0.13099999725818638,-0.5400000214576721,-0.9580000042915344,-0.8960000276565552,0.7509999871253967,0.4189999997615814,0.9179999828338624,0.09200000017881394,-0.3840000033378601,0.09000000357627869,0.8489999771118164,0.19599999487400056,0.6850000023841858,-0.9700000286102296,0.1720000058412552,0.24899999797344209,-0.4659999907016754,0.19099999964237217,0.6259999871253967,0.421999990940094,0.4009999930858612,-0.7730000019073486,0.7379999756813049,-0.5040000081062317,0.210999995470047,0.4050000011920929,0.23899999260902408,-0.15299999713897706,-0.7440000176429749,0.5139999985694885,-0.375,-0.7559999823570252,0.328000009059906,0.6869999766349793,-0.6800000071525574,0.5619999766349793,0.2549999952316284,0.7910000085830689,0.6050000190734863,0.7170000076293945,0.3540000021457672,0.2290000021457672,0.7739999890327454,-0.8149999976158142,-0.20999999344348908,-0.35499998927116396,0.6340000033378601,-0.5669999718666077,0.0820000022649765,-0.9169999957084656,-0.6290000081062317,0.8320000171661377,-0.019999999552965165,-0.4169999957084656,-0.1379999965429306,0.4169999957084656,-0.9900000095367432,-0.968999981880188,-0.8119999766349793,0.5540000200271606,-0.4070000052452088,-0.9980000257492064,-0.008999999612569809,-0.878000020980835,-0.17499999701976777,0.1469999998807907,-0.8759999871253967,-0.7409999966621399,0.8230000138282776,0.36800000071525576,0.4880000054836273]}},"inputWeight3":{"matrix":{"rows":5,"cols":15,"values":[0.4860000014305115,-0.7670000195503235,-0.10100000351667404,-0.3479999899864197,-0.13099999725818638,-0.5400000214576721,-0.9580000042915344,-0.8960000276565552,0.7509999871253967,0.4189999997615814,0.9179999828338624,0.09200000017881394,-0.3840000033378601,0.09000000357627869,0.8489999771118164,0.19599999487400056,0.6850000023841858,-0.9700000286102296,0.1720000058412552,0.24899999797344209,-0.4659999907016754,0.19099999964237217,0.6259999871253967,0.421999990940094,0.4009999930858612,-0.7730000019073486,0.7379999756813049,-0.5040000081062317,0.210999995470047,0.4050000011920929,0.23899999260902408,-0.15299999713897706,-0.7440000176429749,0.5139999985694885,-0.375,-0.7559999823570252,0.328000009059906,0.6869999766349793,-0.6800000071525574,0.5619999766349793,0.2549999952316284,0.7910000085830689,0.6050000190734863,0.7170000076293945,0.3540000021457672,0.2290000021457672,0.7739999890327454,-0.8149999976158142,-0.20999999344348908,-0.35499998927116396,0.6340000033378601,-0.5669999718666077,0.0820000022649765,-0.9169999957084656,-0.6290000081062317,0.8320000171661377,-0.019999999552965165,-0.4169999957084656,-0.1379999965429306,0.4169999957084656,-0.9900000095367432,-0.968999981880188,-0.8119999766349793,0.5540000200271606,-0.4070000052452088,-0.9980000257492064,-0.008999999612569809,-0.878000020980835,-0.17499999701976777,0.1469999998807907,-0.8759999871253967,-0.7409999966621399,0.8230000138282776,0.36800000071525576,0.4880000054836273]}},"inputWeight4":{"matrix":{"rows":5,"cols":15,"values":[0.4860000014305115,-0.7670000195503235,-0.10100000351667404,-0.3479999899864197,-0.13099999725818638,-0.5400000214576721,-0.9580000042915344,-0.8960000276565552,0.7509999871253967,0.4189999997615814,0.9179999828338624,0.09200000017881394,-0.3840000033378601,0.09000000357627869,0.8489999771118164,0.19599999487400056,0.6850000023841858,-0.9700000286102296,0.1720000058412552,0.24899999797344209,-0.4659999907016754,0.19099999964237217,0.6259999871253967,0.421999990940094,0.4009999930858612,-0.7730000019073486,0.7379999756813049,-0.5040000081062317,0.210999995470047,0.4050000011920929,0.23899999260902408,-0.15299999713897706,-0.7440000176429749,0.5139999985694885,-0.375,-0.7559999823570252,0.328000009059906,0.6869999766349793,-0.6800000071525574,0.5619999766349793,0.2549999952316284,0.7910000085830689,0.6050000190734863,0.7170000076293945,0.3540000021457672,0.2290000021457672,0.7739999890327454,-0.8149999976158142,-0.20999999344348908,-0.35499998927116396,0.6340000033378601,-0.5669999718666077,0.0820000022649765,-0.9169999957084656,-0.6290000081062317,0.8320000171661377,-0.019999999552965165,-0.4169999957084656,-0.1379999965429306,0.4169999957084656,-0.9900000095367432,-0.968999981880188,-0.8119999766349793,0.5540000200271606,-0.4070000052452088,-0.9980000257492064,-0.008999999612569809,-0.878000020980835,-0.17499999701976777,0.1469999998807907,-0.8759999871253967,-0.7409999966621399,0.8230000138282776,0.36800000071525576,0.4880000054836273]}},"recursiveWeight1":{"matrix":{"rows":15,"cols":15,"values":[0.4860000014305115,-0.7670000195503235,-0.10100000351667404,-0.3479999899864197,-0.13099999725818638,-0.5400000214576721,-0.9580000042915344,-0.8960000276565552,0.7509999871253967,0.4189999997615814,0.9179999828338624,0.09200000017881394,-0.3840000033378601,0.09000000357627869,0.8489999771118164,0.19599999487400056,0.6850000023841858,-0.9700000286102296,0.1720000058412552,0.24899999797344209,-0.4659999907016754,0.19099999964237217,0.6259999871253967,0.421999990940094,0.4009999930858612,-0.7730000019073486,0.7379999756813049,-0.5040000081062317,0.210999995470047,0.4050000011920929,0.23899999260902408,-0.15299999713897706,-0.7440000176429749,0.5139999985694885,-0.375,-0.7559999823570252,0.328000009059906,0.6869999766349793,-0.6800000071525574,0.5619999766349793,0.2549999952316284,0.7910000085830689,0.6050000190734863,0.7170000076293945,0.3540000021457672,0.2290000021457672,0.7739999890327454,-0.8149999976158142,-0.20999999344348908,-0.35499998927116396,0.6340000033378601,-0.5669999718666077,0.0820000022649765,-0.9169999957084656,-0.6290000081062317,0.8320000171661377,-0.019999999552965165,-0.4169999957084656,-0.1379999965429306,0.4169999957084656,-0.9900000095367432,-0.968999981880188,-0.8119999766349793,0.5540000200271606,-0.4070000052452088,-0.9980000257492064,-0.008999999612569809,-0.878000020980835,-0.17499999701976777,0.1469999998807907,-0.8759999871253967,-0.7409999966621399,0.8230000138282776,0.36800000071525576,0.4880000054836273,-0.9269999861717224,-0.7910000085830689,-0.4070000052452088,0.04399999976158142,-0.6779999732971191,-0.3479999899864197,-0.8790000081062317,-0.6340000033378601,-0.7699999809265137,0.7649999856948853,0.3799999952316284,-0.5210000276565552,-0.3030000030994416,0.8140000104904175,0.7889999747276306,0.08500000089406967,-0.930999994277954,-0.9879999756813048,0.34299999475479128,0.44999998807907107,0.4740000069141388,-0.9020000100135804,-0.414000004529953,-0.47099998593330386,0.6309999823570252,0.9990000128746032,0.8510000109672546,-0.8859999775886536,0.4120000004768372,0.9980000257492064,-0.5410000085830689,-0.6650000214576721,-0.7129999995231628,0.9850000143051148,-0.04199999943375588,0.024000000208616258,0.699999988079071,-0.5569999814033508,-0.6259999871253967,-0.18400000035762788,-0.013000000268220902,0.23800000548362733,0.052000001072883609,-0.03999999910593033,-0.07800000160932541,0.8949999809265137,-0.1940000057220459,0.4729999899864197,0.7039999961853027,0.1599999964237213,0.9539999961853029,-0.8790000081062317,-0.7509999871253967,0.7730000019073486,0.2029999941587448,-0.6489999890327454,0.8610000014305115,0.5180000066757202,-0.014000000432133677,-0.3420000076293946,0.8500000238418579,0.9729999899864196,0.6710000038146973,0.2520000040531159,0.9800000190734864,0.5090000033378601,0.7770000100135803,0.04199999943375588,0.7689999938011169,0.4889999926090241,0.12200000137090685,0.26499998569488528,0.7910000085830689,0.9279999732971193,-0.7429999709129334,-0.21299999952316285,0.5170000195503235,-0.386000007390976,0.6470000147819519,-0.5799999833106995,0.061000000685453418,-0.8339999914169312,-0.34599998593330386,0.7620000243186951,0.39399999380111697,-0.4889999926090241,0.3519999980926514,-0.8379999995231628,0.8970000147819519,0.5709999799728394,0.4230000078678131,-0.4169999957084656,0.7749999761581421,0.5879999995231628,0.921999990940094,-0.06800000369548798,-0.7369999885559082,0.8859999775886536,-0.3179999887943268,0.6380000114440918,-0.39899998903274538,0.00800000037997961,0.8859999775886536,0.8379999995231628,-0.032999999821186069,-0.4639999866485596,-0.6710000038146973,0.6489999890327454,-0.8849999904632568,-0.9879999756813048,-0.6240000128746033,-0.33500000834465029,0.3720000088214874,0.01899999938905239,-0.3310000002384186,-0.6129999756813049,-0.7089999914169312,0.859000027179718,0.5799999833106995,0.996999979019165,-0.6880000233650208,0.3709999918937683,0.7129999995231628,-0.8169999718666077,0.5,-0.6679999828338623,-0.5720000267028809,-0.3499999940395355,-0.2619999945163727,-0.014000000432133677,-0.7649999856948853,-0.6940000057220459,-0.8629999756813049,-0.6269999742507935,0.7450000047683716,0.734000027179718,0.3420000076293946,0.5400000214576721,0.5329999923706055,-0.8100000023841858,-0.2840000092983246,-0.22100000083446504,0.6190000176429749,0.777999997138977,-0.6349999904632568,-0.2660000026226044,0.4009999930858612,0.9829999804496764,0.1860000044107437,-0.7379999756813049]}},"recursiveWeight2":{"matrix":{"rows":15,"cols":15,"values":[0.4860000014305115,-0.7670000195503235,-0.10100000351667404,-0.3479999899864197,-0.13099999725818638,-0.5400000214576721,-0.9580000042915344,-0.8960000276565552,0.7509999871253967,0.4189999997615814,0.9179999828338624,0.09200000017881394,-0.3840000033378601,0.09000000357627869,0.8489999771118164,0.19599999487400056,0.6850000023841858,-0.9700000286102296,0.1720000058412552,0.24899999797344209,-0.4659999907016754,0.19099999964237217,0.6259999871253967,0.421999990940094,0.4009999930858612,-0.7730000019073486,0.7379999756813049,-0.5040000081062317,0.210999995470047,0.4050000011920929,0.23899999260902408,-0.15299999713897706,-0.7440000176429749,0.5139999985694885,-0.375,-0.7559999823570252,0.328000009059906,0.6869999766349793,-0.6800000071525574,0.5619999766349793,0.2549999952316284,0.7910000085830689,0.6050000190734863,0.7170000076293945,0.3540000021457672,0.2290000021457672,0.7739999890327454,-0.8149999976158142,-0.20999999344348908,-0.35499998927116396,0.6340000033378601,-0.5669999718666077,0.0820000022649765,-0.9169999957084656,-0.6290000081062317,0.8320000171661377,-0.019999999552965165,-0.4169999957084656,-0.1379999965429306,0.4169999957084656,-0.9900000095367432,-0.968999981880188,-0.8119999766349793,0.5540000200271606,-0.4070000052452088,-0.9980000257492064,-0.008999999612569809,-0.878000020980835,-0.17499999701976777,0.1469999998807907,-0.8759999871253967,-0.7409999966621399,0.8230000138282776,0.36800000071525576,0.4880000054836273,-0.9269999861717224,-0.7910000085830689,-0.4070000052452088,0.04399999976158142,-0.6779999732971191,-0.3479999899864197,-0.8790000081062317,-0.6340000033378601,-0.7699999809265137,0.7649999856948853,0.3799999952316284,-0.5210000276565552,-0.3030000030994416,0.8140000104904175,0.7889999747276306,0.08500000089406967,-0.930999994277954,-0.9879999756813048,0.34299999475479128,0.44999998807907107,0.4740000069141388,-0.9020000100135804,-0.414000004529953,-0.47099998593330386,0.6309999823570252,0.9990000128746032,0.8510000109672546,-0.8859999775886536,0.4120000004768372,0.9980000257492064,-0.5410000085830689,-0.6650000214576721,-0.7129999995231628,0.9850000143051148,-0.04199999943375588,0.024000000208616258,0.699999988079071,-0.5569999814033508,-0.6259999871253967,-0.18400000035762788,-0.013000000268220902,0.23800000548362733,0.052000001072883609,-0.03999999910593033,-0.07800000160932541,0.8949999809265137,-0.1940000057220459,0.4729999899864197,0.7039999961853027,0.1599999964237213,0.9539999961853029,-0.8790000081062317,-0.7509999871253967,0.7730000019073486,0.2029999941587448,-0.6489999890327454,0.8610000014305115,0.5180000066757202,-0.014000000432133677,-0.3420000076293946,0.8500000238418579,0.9729999899864196,0.6710000038146973,0.2520000040531159,0.9800000190734864,0.5090000033378601,0.7770000100135803,0.04199999943375588,0.7689999938011169,0.4889999926090241,0.12200000137090685,0.26499998569488528,0.7910000085830689,0.9279999732971193,-0.7429999709129334,-0.21299999952316285,0.5170000195503235,-0.386000007390976,0.6470000147819519,-0.5799999833106995,0.061000000685453418,-0.8339999914169312,-0.34599998593330386,0.7620000243186951,0.39399999380111697,-0.4889999926090241,0.3519999980926514,-0.8379999995231628,0.8970000147819519,0.5709999799728394,0.4230000078678131,-0.4169999957084656,0.7749999761581421,0.5879999995231628,0.921999990940094,-0.06800000369548798,-0.7369999885559082,0.8859999775886536,-0.3179999887943268,0.6380000114440918,-0.39899998903274538,0.00800000037997961,0.8859999775886536,0.8379999995231628,-0.032999999821186069,-0.4639999866485596,-0.6710000038146973,0.6489999890327454,-0.8849999904632568,-0.9879999756813048,-0.6240000128746033,-0.33500000834465029,0.3720000088214874,0.01899999938905239,-0.3310000002384186,-0.6129999756813049,-0.7089999914169312,0.859000027179718,0.5799999833106995,0.996999979019165,-0.6880000233650208,0.3709999918937683,0.7129999995231628,-0.8169999718666077,0.5,-0.6679999828338623,-0.5720000267028809,-0.3499999940395355,-0.2619999945163727,-0.014000000432133677,-0.7649999856948853,-0.6940000057220459,-0.8629999756813049,-0.6269999742507935,0.7450000047683716,0.734000027179718,0.3420000076293946,0.5400000214576721,0.5329999923706055,-0.8100000023841858,-0.2840000092983246,-0.22100000083446504,0.6190000176429749,0.777999997138977,-0.6349999904632568,-0.2660000026226044,0.4009999930858612,0.9829999804496764,0.1860000044107437,-0.7379999756813049]}},"recursiveWeight3":{"matrix":{"rows":15,"cols":15,"values":[0.4860000014305115,-0.7670000195503235,-0.10100000351667404,-0.3479999899864197,-0.13099999725818638,-0.5400000214576721,-0.9580000042915344,-0.8960000276565552,0.7509999871253967,0.4189999997615814,0.9179999828338624,0.09200000017881394,-0.3840000033378601,0.09000000357627869,0.8489999771118164,0.19599999487400056,0.6850000023841858,-0.9700000286102296,0.1720000058412552,0.24899999797344209,-0.4659999907016754,0.19099999964237217,0.6259999871253967,0.421999990940094,0.4009999930858612,-0.7730000019073486,0.7379999756813049,-0.5040000081062317,0.210999995470047,0.4050000011920929,0.23899999260902408,-0.15299999713897706,-0.7440000176429749,0.5139999985694885,-0.375,-0.7559999823570252,0.328000009059906,0.6869999766349793,-0.6800000071525574,0.5619999766349793,0.2549999952316284,0.7910000085830689,0.6050000190734863,0.7170000076293945,0.3540000021457672,0.2290000021457672,0.7739999890327454,-0.8149999976158142,-0.20999999344348908,-0.35499998927116396,0.6340000033378601,-0.5669999718666077,0.0820000022649765,-0.9169999957084656,-0.6290000081062317,0.8320000171661377,-0.019999999552965165,-0.4169999957084656,-0.1379999965429306,0.4169999957084656,-0.9900000095367432,-0.968999981880188,-0.8119999766349793,0.5540000200271606,-0.4070000052452088,-0.9980000257492064,-0.008999999612569809,-0.878000020980835,-0.17499999701976777,0.1469999998807907,-0.8759999871253967,-0.7409999966621399,0.8230000138282776,0.36800000071525576,0.4880000054836273,-0.9269999861717224,-0.7910000085830689,-0.4070000052452088,0.04399999976158142,-0.6779999732971191,-0.3479999899864197,-0.8790000081062317,-0.6340000033378601,-0.7699999809265137,0.7649999856948853,0.3799999952316284,-0.5210000276565552,-0.3030000030994416,0.8140000104904175,0.7889999747276306,0.08500000089406967,-0.930999994277954,-0.9879999756813048,0.34299999475479128,0.44999998807907107,0.4740000069141388,-0.9020000100135804,-0.414000004529953,-0.47099998593330386,0.6309999823570252,0.9990000128746032,0.8510000109672546,-0.8859999775886536,0.4120000004768372,0.9980000257492064,-0.5410000085830689,-0.6650000214576721,-0.7129999995231628,0.9850000143051148,-0.04199999943375588,0.024000000208616258,0.699999988079071,-0.5569999814033508,-0.6259999871253967,-0.18400000035762788,-0.013000000268220902,0.23800000548362733,0.052000001072883609,-0.03999999910593033,-0.07800000160932541,0.8949999809265137,-0.1940000057220459,0.4729999899864197,0.7039999961853027,0.1599999964237213,0.9539999961853029,-0.8790000081062317,-0.7509999871253967,0.7730000019073486,0.2029999941587448,-0.6489999890327454,0.8610000014305115,0.5180000066757202,-0.014000000432133677,-0.3420000076293946,0.8500000238418579,0.9729999899864196,0.6710000038146973,0.2520000040531159,0.9800000190734864,0.5090000033378601,0.7770000100135803,0.04199999943375588,0.7689999938011169,0.4889999926090241,0.12200000137090685,0.26499998569488528,0.7910000085830689,0.9279999732971193,-0.7429999709129334,-0.21299999952316285,0.5170000195503235,-0.386000007390976,0.6470000147819519,-0.5799999833106995,0.061000000685453418,-0.8339999914169312,-0.34599998593330386,0.7620000243186951,0.39399999380111697,-0.4889999926090241,0.3519999980926514,-0.8379999995231628,0.8970000147819519,0.5709999799728394,0.4230000078678131,-0.4169999957084656,0.7749999761581421,0.5879999995231628,0.921999990940094,-0.06800000369548798,-0.7369999885559082,0.8859999775886536,-0.3179999887943268,0.6380000114440918,-0.39899998903274538,0.00800000037997961,0.8859999775886536,0.8379999995231628,-0.032999999821186069,-0.4639999866485596,-0.6710000038146973,0.6489999890327454,-0.8849999904632568,-0.9879999756813048,-0.6240000128746033,-0.33500000834465029,0.3720000088214874,0.01899999938905239,-0.3310000002384186,-0.6129999756813049,-0.7089999914169312,0.859000027179718,0.5799999833106995,0.996999979019165,-0.6880000233650208,0.3709999918937683,0.7129999995231628,-0.8169999718666077,0.5,-0.6679999828338623,-0.5720000267028809,-0.3499999940395355,-0.2619999945163727,-0.014000000432133677,-0.7649999856948853,-0.6940000057220459,-0.8629999756813049,-0.6269999742507935,0.7450000047683716,0.734000027179718,0.3420000076293946,0.5400000214576721,0.5329999923706055,-0.8100000023841858,-0.2840000092983246,-0.22100000083446504,0.6190000176429749,0.777999997138977,-0.6349999904632568,-0.2660000026226044,0.4009999930858612,0.9829999804496764,0.1860000044107437,-0.7379999756813049]}},"recursiveWeight4":{"matrix":{"rows":15,"cols":15,"values":[0.4860000014305115,-0.7670000195503235,-0.10100000351667404,-0.3479999899864197,-0.13099999725818638,-0.5400000214576721,-0.9580000042915344,-0.8960000276565552,0.7509999871253967,0.4189999997615814,0.9179999828338624,0.09200000017881394,-0.3840000033378601,0.09000000357627869,0.8489999771118164,0.19599999487400056,0.6850000023841858,-0.9700000286102296,0.1720000058412552,0.24899999797344209,-0.4659999907016754,0.19099999964237217,0.6259999871253967,0.421999990940094,0.4009999930858612,-0.7730000019073486,0.7379999756813049,-0.5040000081062317,0.210999995470047,0.4050000011920929,0.23899999260902408,-0.15299999713897706,-0.7440000176429749,0.5139999985694885,-0.375,-0.7559999823570252,0.328000009059906,0.6869999766349793,-0.6800000071525574,0.5619999766349793,0.2549999952316284,0.7910000085830689,0.6050000190734863,0.7170000076293945,0.3540000021457672,0.2290000021457672,0.7739999890327454,-0.8149999976158142,-0.20999999344348908,-0.35499998927116396,0.6340000033378601,-0.5669999718666077,0.0820000022649765,-0.9169999957084656,-0.6290000081062317,0.8320000171661377,-0.019999999552965165,-0.4169999957084656,-0.1379999965429306,0.4169999957084656,-0.9900000095367432,-0.968999981880188,-0.8119999766349793,0.5540000200271606,-0.4070000052452088,-0.9980000257492064,-0.008999999612569809,-0.878000020980835,-0.17499999701976777,0.1469999998807907,-0.8759999871253967,-0.7409999966621399,0.8230000138282776,0.36800000071525576,0.4880000054836273,-0.9269999861717224,-0.7910000085830689,-0.4070000052452088,0.04399999976158142,-0.6779999732971191,-0.3479999899864197,-0.8790000081062317,-0.6340000033378601,-0.7699999809265137,0.7649999856948853,0.3799999952316284,-0.5210000276565552,-0.3030000030994416,0.8140000104904175,0.7889999747276306,0.08500000089406967,-0.930999994277954,-0.9879999756813048,0.34299999475479128,0.44999998807907107,0.4740000069141388,-0.9020000100135804,-0.414000004529953,-0.47099998593330386,0.6309999823570252,0.9990000128746032,0.8510000109672546,-0.8859999775886536,0.4120000004768372,0.9980000257492064,-0.5410000085830689,-0.6650000214576721,-0.7129999995231628,0.9850000143051148,-0.04199999943375588,0.024000000208616258,0.699999988079071,-0.5569999814033508,-0.6259999871253967,-0.18400000035762788,-0.013000000268220902,0.23800000548362733,0.052000001072883609,-0.03999999910593033,-0.07800000160932541,0.8949999809265137,-0.1940000057220459,0.4729999899864197,0.7039999961853027,0.1599999964237213,0.9539999961853029,-0.8790000081062317,-0.7509999871253967,0.7730000019073486,0.2029999941587448,-0.6489999890327454,0.8610000014305115,0.5180000066757202,-0.014000000432133677,-0.3420000076293946,0.8500000238418579,0.9729999899864196,0.6710000038146973,0.2520000040531159,0.9800000190734864,0.5090000033378601,0.7770000100135803,0.04199999943375588,0.7689999938011169,0.4889999926090241,0.12200000137090685,0.26499998569488528,0.7910000085830689,0.9279999732971193,-0.7429999709129334,-0.21299999952316285,0.5170000195503235,-0.386000007390976,0.6470000147819519,-0.5799999833106995,0.061000000685453418,-0.8339999914169312,-0.34599998593330386,0.7620000243186951,0.39399999380111697,-0.4889999926090241,0.3519999980926514,-0.8379999995231628,0.8970000147819519,0.5709999799728394,0.4230000078678131,-0.4169999957084656,0.7749999761581421,0.5879999995231628,0.921999990940094,-0.06800000369548798,-0.7369999885559082,0.8859999775886536,-0.3179999887943268,0.6380000114440918,-0.39899998903274538,0.00800000037997961,0.8859999775886536,0.8379999995231628,-0.032999999821186069,-0.4639999866485596,-0.6710000038146973,0.6489999890327454,-0.8849999904632568,-0.9879999756813048,-0.6240000128746033,-0.33500000834465029,0.3720000088214874,0.01899999938905239,-0.3310000002384186,-0.6129999756813049,-0.7089999914169312,0.859000027179718,0.5799999833106995,0.996999979019165,-0.6880000233650208,0.3709999918937683,0.7129999995231628,-0.8169999718666077,0.5,-0.6679999828338623,-0.5720000267028809,-0.3499999940395355,-0.2619999945163727,-0.014000000432133677,-0.7649999856948853,-0.6940000057220459,-0.8629999756813049,-0.6269999742507935,0.7450000047683716,0.734000027179718,0.3420000076293946,0.5400000214576721,0.5329999923706055,-0.8100000023841858,-0.2840000092983246,-0.22100000083446504,0.6190000176429749,0.777999997138977,-0.6349999904632568,-0.2660000026226044,0.4009999930858612,0.9829999804496764,0.1860000044107437,-0.7379999756813049]}},"bias1":{"matrix":{"rows":1,"cols":15,"values":[0.0,0.0,0.0,0.0,0.0,0.0,0.0,0.0,0.0,0.0,0.0,0.0,0.0,0.0,0.0]}},"bias2":{"matrix":{"rows":1,"cols":15,"values":[0.0,0.0,0.0,0.0,0.0,0.0,0.0,0.0,0.0,0.0,0.0,0.0,0.0,0.0,0.0]}},"bias3":{"matrix":{"rows":1,"cols":15,"values":[0.0,0.0,0.0,0.0,0.0,0.0,0.0,0.0,0.0,0.0,0.0,0.0,0.0,0.0,0.0]}},"bias4":{"matrix":{"rows":1,"cols":15,"values":[0.0,0.0,0.0,0.0,0.0,0.0,0.0,0.0,0.0,0.0,0.0,0.0,0.0,0.0,0.0]}}}}}],"layerCount":2,"inputLayerId":0,"outputLayerId":1}}