{"model":{"layers":[{"inputLayerId":-1,"layerData":{"layer":{"id":0,"type":0,"size":5}}},{"inputLayerId":0,"layerData":{"layer":{"id":1,"type":3,"size":15,"inputSize":5,"inputWeight1":{"matrix":{"rows":5,"cols":15,"values":[-0.0560000017285347,0.7319999933242798,0.26100000739097597,-0.7310000061988831,0.5709999799728394,0.975000023841858,0.5550000071525574,0.6340000033378601,0.7269999980926514,0.4600000083446503,0.8450000286102295,0.23600000143051148,-0.5730000138282776,0.6240000128746033,0.75,0.5210000276565552,0.7559999823570252,0.7919999957084656,-0.5669999718666077,-0.03700000047683716,-0.7170000076293945,-0.6050000190734863,-0.4659999907016754,-0.2790000140666962,-0.5680000185966492,-0.6359999775886536,-0.4129999876022339,0.34700000286102297,-0.8029999732971191,0.39500001072883608,-0.1940000057220459,-0.5789999961853027,-0.9380000233650208,0.44600000977516177,-0.5600000023841858,0.6729999780654907,0.01899999938905239,-0.5899999737739563,0.6179999709129334,-0.3050000071525574,0.9890000224113464,-0.703000009059906,-0.625,0.3070000112056732,-0.16099999845027924,0.6420000195503235,-0.22599999606609345,-0.8059999942779541,0.05999999865889549,0.9850000143051148,-0.1860000044107437,-0.14399999380111698,0.24300000071525577,-0.6330000162124634,0.04500000178813934,0.024000000208616258,-0.03999999910593033,-0.3179999887943268,-0.164000004529953,-0.4620000123977661,0.4390000104904175,-0.39500001072883608,0.703000009059906,-0.1289999932050705,0.6129999756813049,-0.8240000009536743,0.8970000147819519,-0.4620000123977661,0.4600000083446503,0.9869999885559082,-0.8330000042915344,-0.925000011920929,0.6940000057220459,-0.1550000011920929,-0.8579999804496765]}},"inputWeight2":{"matrix":{"rows":5,"cols":15,"values":[-0.0560000017285347,0.7319999933242798,0.26100000739097597,-0.7310000061988831,0.5709999799728394,0.975000023841858,0.5550000071525574,0.6340000033378601,0.7269999980926514,0.4600000083446503,0.8450000286102295,0.23600000143051148,-0.5730000138282776,0.6240000128746033,0.75,0.5210000276565552,0.7559999823570252,0.7919999957084656,-0.5669999718666077,-0.03700000047683716,-0.7170000076293945,-0.6050000190734863,-0.4659999907016754,-0.2790000140666962,-0.5680000185966492,-0.6359999775886536,-0.4129999876022339,0.34700000286102297,-0.8029999732971191,0.39500001072883608,-0.1940000057220459,-0.5789999961853027,-0.9380000233650208,0.44600000977516177,-0.5600000023841858,0.6729999780654907,0.01899999938905239,-0.5899999737739563,0.6179999709129334,-0.3050000071525574,0.9890000224113464,-0.703000009059906,-0.625,0.3070000112056732,-0.16099999845027924,0.6420000195503235,-0.22599999606609345,-0.8059999942779541,0.05999999865889549,0.9850000143051148,-0.1860000044107437,-0.14399999380111698,0.24300000071525577,-0.6330000162124634,0.04500000178813934,0.024000000208616258,-0.03999999910593033,-0.3179999887943268,-0.164000004529953,-0.4620000123977661,0.4390000104904175,-0.39500001072883608,0.703000009059906,-0.1289999932050705,0.6129999756813049,-0.8240000009536743,0.8970000147819519,-0.4620000123977661,0.4600000083446503,0.9869999885559082,-0.8330000042915344,-0.925000011920929,0.6940000057220459,-0.1550000011920929,-0.8579999804496765]}},"inputWeight3":{"matrix":{"rows":5,"cols":15,"values":[-0.0560000017285347,0.7319999933242798,0.26100000739097597,-0.7310000061988831,0.5709999799728394,0.975000023841858,0.5550000071525574,0.6340000033378601,0.7269999980926514,0.4600000083446503,0.8450000286102295,0.23600000143051148,-0.5730000138282776,0.6240000128746033,0.75,0.5210000276565552,0.7559999823570252,0.7919999957084656,-0.5669999718666077,-0.03700000047683716,-0.7170000076293945,-0.6050000190734863,-0.4659999907016754,-0.2790000140666962,-0.5680000185966492,-0.6359999775886536,-0.4129999876022339,0.34700000286102297,-0.8029999732971191,0.39500001072883608,-0.1940000057220459,-0.5789999961853027,-0.9380000233650208,0.44600000977516177,-0.5600000023841858,0.6729999780654907,0.01899999938905239,-0.5899999737739563,0.6179999709129334,-0.3050000071525574,0.9890000224113464,-0.703000009059906,-0.625,0.3070000112056732,-0.16099999845027924,0.6420000195503235,-0.22599999606609345,-0.8059999942779541,0.05999999865889549,0.9850000143051148,-0.1860000044107437,-0.14399999380111698,0.24300000071525577,-0.6330000162124634,0.04500000178813934,0.024000000208616258,-0.03999999910593033,-0.3179999887943268,-0.164000004529953,-0.4620000123977661,0.4390000104904175,-0.39500001072883608,0.703000009059906,-0.1289999932050705,0.6129999756813049,-0.8240000009536743,0.8970000147819519,-0.4620000123977661,0.4600000083446503,0.9869999885559082,-0.8330000042915344,-0.925000011920929,0.6940000057220459,-0.1550000011920929,-0.8579999804496765]}},"inputWeight4":{"matrix":{"rows":5,"cols":15,"values":[-0.0560000017285347,0.7319999933242798,0.26100000739097597,-0.7310000061988831,0.5709999799728394,0.975000023841858,0.5550000071525574,0.6340000033378601,0.7269999980926514,0.4600000083446503,0.8450000286102295,0.23600000143051148,-0.5730000138282776,0.6240000128746033,0.75,0.5210000276565552,0.7559999823570252,0.7919999957084656,-0.5669999718666077,-0.03700000047683716,-0.7170000076293945,-0.6050000190734863,-0.4659999907016754,-0.2790000140666962,-0.5680000185966492,-0.6359999775886536,-0.4129999876022339,0.34700000286102297,-0.8029999732971191,0.39500001072883608,-0.1940000057220459,-0.5789999961853027,-0.9380000233650208,0.44600000977516177,-0.5600000023841858,0.6729999780654907,0.01899999938905239,-0.5899999737739563,0.6179999709129334,-0.3050000071525574,0.9890000224113464,-0.703000009059906,-0.625,0.3070000112056732,-0.16099999845027924,0.6420000195503235,-0.22599999606609345,-0.8059999942779541,0.05999999865889549,0.9850000143051148,-0.1860000044107437,-0.14399999380111698,0.24300000071525577,-0.6330000162124634,0.04500000178813934,0.024000000208616258,-0.03999999910593033,-0.3179999887943268,-0.164000004529953,-0.4620000123977661,0.4390000104904175,-0.39500001072883608,0.703000009059906,-0.1289999932050705,0.6129999756813049,-0.8240000009536743,0.8970000147819519,-0.4620000123977661,0.4600000083446503,0.9869999885559082,-0.8330000042915344,-0.925000011920929,0.6940000057220459,-0.1550000011920929,-0.8579999804496765]}},"recursiveWeight1":{"matrix":{"rows":15,"cols":15,"values":[-0.0560000017285347,0.7319999933242798,0.26100000739097597,-0.7310000061988831,0.5709999799728394,0.975000023841858,0.5550000071525574,0.6340000033378601,0.7269999980926514,0.4600000083446503,0.8450000286102295,0.23600000143051148,-0.5730000138282776,0.6240000128746033,0.75,0.5210000276565552,0.7559999823570252,0.7919999957084656,-0.5669999718666077,-0.03700000047683716,-0.7170000076293945,-0.6050000190734863,-0.4659999907016754,-0.2790000140666962,-0.5680000185966492,-0.6359999775886536,-0.4129999876022339,0.34700000286102297,-0.8029999732971191,0.39500001072883608,-0.1940000057220459,-0.5789999961853027,-0.9380000233650208,0.44600000977516177,-0.5600000023841858,0.6729999780654907,0.01899999938905239,-0.5899999737739563,0.6179999709129334,-0.3050000071525574,0.9890000224113464,-0.703000009059906,-0.625,0.3070000112056732,-0.16099999845027924,0.6420000195503235,-0.22599999606609345,-0.8059999942779541,0.05999999865889549,0.9850000143051148,-0.1860000044107437,-0.14399999380111698,0.24300000071525577,-0.6330000162124634,0.04500000178813934,0.024000000208616258,-0.03999999910593033,-0.3179999887943268,-0.164000004529953,-0.4620000123977661,0.4390000104904175,-0.39500001072883608,0.703000009059906,-0.1289999932050705,0.6129999756813049,-0.8240000009536743,0.8970000147819519,-0.4620000123977661,0.4600000083446503,0.9869999885559082,-0.8330000042915344,-0.925000011920929,0.6940000057220459,-0.1550000011920929,-0.8579999804496765,-0.42899999022483828,0.2280000001192093,0.3300000131130219,-0.5120000243186951,-0.5640000104904175,-0.5210000276565552,0.6110000014305115,-0.9399999976158142,0.4110000133514405,0.6869999766349793,0.4650000035762787,0.6729999780654907,0.7239999771118164,0.5400000214576721,0.35499998927116396,-0.5180000066757202,0.4009999930858612,-0.19200000166893009,0.24799999594688416,-0.6480000019073486,0.42100000381469729,0.7799999713897705,0.05000000074505806,-0.5759999752044678,0.671999990940094,0.1669999957084656,-0.9359999895095824,0.800000011920929,-0.07100000232458115,0.06700000166893006,-0.1289999932050705,-0.47600001096725466,0.828000009059906,0.3720000088214874,-0.21400000154972077,0.7910000085830689,-0.5059999823570252,0.460999995470047,0.014000000432133677,0.5730000138282776,-0.1340000033378601,-0.4110000133514405,0.9570000171661376,-0.4429999887943268,0.5950000286102295,0.28299999237060549,-0.009999999776482582,-0.6140000224113464,-0.703000009059906,-0.3379999995231629,-0.05400000140070915,0.3179999887943268,0.06300000101327896,0.27300000190734866,0.8809999823570252,-0.4729999899864197,0.9929999709129334,-0.6880000233650208,-0.9340000152587892,0.1940000057220459,0.15399999916553498,-0.3970000147819519,0.32899999618530276,0.8600000143051148,0.9990000128746032,0.20200000703334809,0.9120000004768372,-0.5849999785423279,0.3569999933242798,0.22599999606609345,-0.527999997138977,0.21199999749660493,-0.421999990940094,0.5740000009536743,-0.5849999785423279,-0.5809999704360962,-0.5899999737739563,-0.9290000200271606,0.878000020980835,0.36800000071525576,0.7049999833106995,0.753000020980835,0.8790000081062317,-0.7450000047683716,-0.21699999272823337,-0.6759999990463257,0.9100000262260436,-0.328000009059906,0.039000000804662707,0.968999981880188,0.2150000035762787,0.3659999966621399,0.3889999985694885,-0.6779999732971191,0.8450000286102295,0.19900000095367433,0.6200000047683716,-0.4569999873638153,0.16200000047683717,-0.8230000138282776,-0.7429999709129334,0.27000001072883608,0.6919999718666077,-0.453000009059906,-0.23399999737739564,-0.09000000357627869,0.4650000035762787,-0.6819999814033508,0.17800000309944154,-0.19099999964237217,0.23800000548362733,0.9589999914169312,0.46799999475479128,-0.01899999938905239,-0.7210000157356262,0.39899998903274538,-0.4410000145435333,-0.05999999865889549,0.8029999732971191,-0.4629999995231629,0.4699999988079071,-0.6460000276565552,0.5389999747276306,0.4189999997615814,-0.4830000102519989,0.5180000066757202,0.7269999980926514,-0.9470000267028808,-0.15700000524520878,-0.3779999911785126,0.04800000041723251,0.23499999940395356,0.6679999828338623,-0.39399999380111697,-0.44600000977516177,-0.386000007390976,-0.47699999809265139,0.5149999856948853,0.5360000133514404,-0.8510000109672546,0.6510000228881836,0.6800000071525574,0.2179999947547913,-0.3499999940395355,0.8009999990463257,0.8960000276565552,0.4339999854564667,-0.42899999022483828,-0.14100000262260438,-0.10000000149011612]}},"recursiveWeight2":{"matrix":{"rows":15,"cols":15,"values":[-0.0560000017285347,0.7319999933242798,0.26100000739097597,-0.7310000061988831,0.5709999799728394,0.975000023841858,0.5550000071525574,0.6340000033378601,0.7269999980926514,0.4600000083446503,0.8450000286102295,0.23600000143051148,-0.5730000138282776,0.6240000128746033,0.75,0.5210000276565552,0.7559999823570252,0.7919999957084656,-0.5669999718666077,-0.03700000047683716,-0.7170000076293945,-0.6050000190734863,-0.4659999907016754,-0.2790000140666962,-0.5680000185966492,-0.6359999775886536,-0.4129999876022339,0.34700000286102297,-0.8029999732971191,0.39500001072883608,-0.1940000057220459,-0.5789999961853027,-0.9380000233650208,0.44600000977516177,-0.5600000023841858,0.6729999780654907,0.01899999938905239,-0.5899999737739563,0.6179999709129334,-0.3050000071525574,0.9890000224113464,-0.703000009059906,-0.625,0.3070000112056732,-0.16099999845027924,0.6420000195503235,-0.22599999606609345,-0.8059999942779541,0.05999999865889549,0.9850000143051148,-0.1860000044107437,-0.14399999380111698,0.24300000071525577,-0.6330000162124634,0.04500000178813934,0.024000000208616258,-0.03999999910593033,-0.3179999887943268,-0.164000004529953,-0.4620000123977661,0.4390000104904175,-0.39500001072883608,0.703000009059906,-0.1289999932050705,0.6129999756813049,-0.8240000009536743,0.8970000147819519,-0.4620000123977661,0.4600000083446503,0.9869999885559082,-0.8330000042915344,-0.925000011920929,0.6940000057220459,-0.1550000011920929,-0.8579999804496765,-0.42899999022483828,0.2280000001192093,0.3300000131130219,-0.5120000243186951,-0.5640000104904175,-0.5210000276565552,0.6110000014305115,-0.9399999976158142,0.4110000133514405,0.6869999766349793,0.4650000035762787,0.6729999780654907,0.7239999771118164,0.5400000214576721,0.35499998927116396,-0.5180000066757202,0.4009999930858612,-0.19200000166893009,0.24799999594688416,-0.6480000019073486,0.42100000381469729,0.7799999713897705,0.05000000074505806,-0.5759999752044678,0.671999990940094,0.1669999957084656,-0.9359999895095824,0.800000011920929,-0.07100000232458115,0.06700000166893006,-0.1289999932050705,-0.47600001096725466,0.828000009059906,0.3720000088214874,-0.21400000154972077,0.7910000085830689,-0.5059999823570252,0.460999995470047,0.014000000432133677,0.5730000138282776,-0.1340000033378601,-0.4110000133514405,0.9570000171661376,-0.4429999887943268,0.5950000286102295,0.28299999237060549,-0.009999999776482582,-0.6140000224113464,-0.703000009059906,-0.3379999995231629,-0.05400000140070915,0.3179999887943268,0.06300000101327896,0.27300000190734866,0.8809999823570252,-0.4729999899864197,0.9929999709129334,-0.6880000233650208,-0.9340000152587892,0.1940000057220459,0.15399999916553498,-0.3970000147819519,0.32899999618530276,0.8600000143051148,0.9990000128746032,0.20200000703334809,0.9120000004768372,-0.5849999785423279,0.3569999933242798,0.22599999606609345,-0.527999997138977,0.21199999749660493,-0.421999990940094,0.5740000009536743,-0.5849999785423279,-0.5809999704360962,-0.5899999737739563,-0.9290000200271606,0.878000020980835,0.36800000071525576,0.7049999833106995,0.753000020980835,0.8790000081062317,-0.7450000047683716,-0.21699999272823337,-0.6759999990463257,0.9100000262260436,-0.328000009059906,0.039000000804662707,0.968999981880188,0.2150000035762787,0.3659999966621399,0.3889999985694885,-0.6779999732971191,0.8450000286102295,0.19900000095367433,0.6200000047683716,-0.4569999873638153,0.16200000047683717,-0.8230000138282776,-0.7429999709129334,0.27000001072883608,0.6919999718666077,-0.453000009059906,-0.23399999737739564,-0.09000000357627869,0.4650000035762787,-0.6819999814033508,0.17800000309944154,-0.19099999964237217,0.23800000548362733,0.9589999914169312,0.46799999475479128,-0.01899999938905239,-0.7210000157356262,0.39899998903274538,-0.4410000145435333,-0.05999999865889549,0.8029999732971191,-0.4629999995231629,0.4699999988079071,-0.6460000276565552,0.5389999747276306,0.4189999997615814,-0.4830000102519989,0.5180000066757202,0.7269999980926514,-0.9470000267028808,-0.15700000524520878,-0.3779999911785126,0.04800000041723251,0.23499999940395356,0.6679999828338623,-0.39399999380111697,-0.44600000977516177,-0.386000007390976,-0.47699999809265139,0.5149999856948853,0.5360000133514404,-0.8510000109672546,0.6510000228881836,0.6800000071525574,0.2179999947547913,-0.3499999940395355,0.8009999990463257,0.8960000276565552,0.4339999854564667,-0.42899999022483828,-0.14100000262260438,-0.10000000149011612]}},"recursiveWeight3":{"matrix":{"rows":15,"cols":15,"values":[-0.0560000017285347,0.7319999933242798,0.26100000739097597,-0.7310000061988831,0.5709999799728394,0.975000023841858,0.5550000071525574,0.6340000033378601,0.7269999980926514,0.4600000083446503,0.8450000286102295,0.23600000143051148,-0.5730000138282776,0.6240000128746033,0.75,0.5210000276565552,0.7559999823570252,0.7919999957084656,-0.5669999718666077,-0.03700000047683716,-0.7170000076293945,-0.6050000190734863,-0.4659999907016754,-0.2790000140666962,-0.5680000185966492,-0.6359999775886536,-0.4129999876022339,0.34700000286102297,-0.8029999732971191,0.39500001072883608,-0.1940000057220459,-0.5789999961853027,-0.9380000233650208,0.44600000977516177,-0.5600000023841858,0.6729999780654907,0.01899999938905239,-0.5899999737739563,0.6179999709129334,-0.3050000071525574,0.9890000224113464,-0.703000009059906,-0.625,0.3070000112056732,-0.16099999845027924,0.6420000195503235,-0.22599999606609345,-0.8059999942779541,0.05999999865889549,0.9850000143051148,-0.1860000044107437,-0.14399999380111698,0.24300000071525577,-0.6330000162124634,0.04500000178813934,0.024000000208616258,-0.03999999910593033,-0.3179999887943268,-0.164000004529953,-0.4620000123977661,0.4390000104904175,-0.39500001072883608,0.703000009059906,-0.1289999932050705,0.6129999756813049,-0.8240000009536743,0.8970000147819519,-0.4620000123977661,0.4600000083446503,0.9869999885559082,-0.8330000042915344,-0.925000011920929,0.6940000057220459,-0.1550000011920929,-0.8579999804496765,-0.42899999022483828,0.2280000001192093,0.3300000131130219,-0.5120000243186951,-0.5640000104904175,-0.5210000276565552,0.6110000014305115,-0.9399999976158142,0.4110000133514405,0.6869999766349793,0.4650000035762787,0.6729999780654907,0.7239999771118164,0.5400000214576721,0.35499998927116396,-0.5180000066757202,0.4009999930858612,-0.19200000166893009,0.24799999594688416,-0.6480000019073486,0.42100000381469729,0.7799999713897705,0.05000000074505806,-0.5759999752044678,0.671999990940094,0.1669999957084656,-0.9359999895095824,0.800000011920929,-0.07100000232458115,0.06700000166893006,-0.1289999932050705,-0.47600001096725466,0.828000009059906,0.3720000088214874,-0.21400000154972077,0.7910000085830689,-0.5059999823570252,0.460999995470047,0.014000000432133677,0.5730000138282776,-0.1340000033378601,-0.4110000133514405,0.9570000171661376,-0.4429999887943268,0.5950000286102295,0.28299999237060549,-0.009999999776482582,-0.6140000224113464,-0.703000009059906,-0.3379999995231629,-0.05400000140070915,0.3179999887943268,0.06300000101327896,0.27300000190734866,0.8809999823570252,-0.4729999899864197,0.9929999709129334,-0.6880000233650208,-0.9340000152587892,0.1940000057220459,0.15399999916553498,-0.3970000147819519,0.32899999618530276,0.8600000143051148,0.9990000128746032,0.20200000703334809,0.9120000004768372,-0.5849999785423279,0.3569999933242798,0.22599999606609345,-0.527999997138977,0.21199999749660493,-0.421999990940094,0.5740000009536743,-0.5849999785423279,-0.5809999704360962,-0.5899999737739563,-0.9290000200271606,0.878000020980835,0.36800000071525576,0.7049999833106995,0.753000020980835,0.8790000081062317,-0.7450000047683716,-0.21699999272823337,-0.6759999990463257,0.9100000262260436,-0.328000009059906,0.039000000804662707,0.968999981880188,0.2150000035762787,0.3659999966621399,0.3889999985694885,-0.6779999732971191,0.8450000286102295,0.19900000095367433,0.6200000047683716,-0.4569999873638153,0.16200000047683717,-0.8230000138282776,-0.7429999709129334,0.27000001072883608,0.6919999718666077,-0.453000009059906,-0.23399999737739564,-0.09000000357627869,0.4650000035762787,-0.6819999814033508,0.17800000309944154,-0.19099999964237217,0.23800000548362733,0.9589999914169312,0.46799999475479128,-0.01899999938905239,-0.7210000157356262,0.39899998903274538,-0.4410000145435333,-0.05999999865889549,0.8029999732971191,-0.4629999995231629,0.4699999988079071,-0.6460000276565552,0.5389999747276306,0.4189999997615814,-0.4830000102519989,0.5180000066757202,0.7269999980926514,-0.9470000267028808,-0.15700000524520878,-0.3779999911785126,0.04800000041723251,0.23499999940395356,0.6679999828338623,-0.39399999380111697,-0.44600000977516177,-0.386000007390976,-0.47699999809265139,0.5149999856948853,0.5360000133514404,-0.8510000109672546,0.6510000228881836,0.6800000071525574,0.2179999947547913,-0.3499999940395355,0.8009999990463257,0.8960000276565552,0.4339999854564667,-0.42899999022483828,-0.14100000262260438,-0.10000000149011612]}},"recursiveWeight4":{"matrix":{"rows":15,"cols":15,"values":[-0.0560000017285347,0.7319999933242798,0.26100000739097597,-0.7310000061988831,0.5709999799728394,0.975000023841858,0.5550000071525574,0.6340000033378601,0.7269999980926514,0.4600000083446503,0.8450000286102295,0.23600000143051148,-0.5730000138282776,0.6240000128746033,0.75,0.5210000276565552,0.7559999823570252,0.7919999957084656,-0.5669999718666077,-0.03700000047683716,-0.7170000076293945,-0.6050000190734863,-0.4659999907016754,-0.2790000140666962,-0.5680000185966492,-0.6359999775886536,-0.4129999876022339,0.34700000286102297,-0.8029999732971191,0.39500001072883608,-0.1940000057220459,-0.5789999961853027,-0.9380000233650208,0.44600000977516177,-0.5600000023841858,0.6729999780654907,0.01899999938905239,-0.5899999737739563,0.6179999709129334,-0.3050000071525574,0.9890000224113464,-0.703000009059906,-0.625,0.3070000112056732,-0.16099999845027924,0.6420000195503235,-0.22599999606609345,-0.8059999942779541,0.05999999865889549,0.9850000143051148,-0.1860000044107437,-0.14399999380111698,0.24300000071525577,-0.6330000162124634,0.04500000178813934,0.024000000208616258,-0.03999999910593033,-0.3179999887943268,-0.164000004529953,-0.4620000123977661,0.4390000104904175,-0.39500001072883608,0.703000009059906,-0.1289999932050705,0.6129999756813049,-0.8240000009536743,0.8970000147819519,-0.4620000123977661,0.4600000083446503,0.9869999885559082,-0.8330000042915344,-0.925000011920929,0.6940000057220459,-0.1550000011920929,-0.8579999804496765,-0.42899999022483828,0.2280000001192093,0.3300000131130219,-0.5120000243186951,-0.5640000104904175,-0.5210000276565552,0.6110000014305115,-0.9399999976158142,0.4110000133514405,0.6869999766349793,0.4650000035762787,0.6729999780654907,0.7239999771118164,0.5400000214576721,0.35499998927116396,-0.5180000066757202,0.4009999930858612,-0.19200000166893009,0.24799999594688416,-0.6480000019073486,0.42100000381469729,0.7799999713897705,0.05000000074505806,-0.5759999752044678,0.671999990940094,0.1669999957084656,-0.9359999895095824,0.800000011920929,-0.07100000232458115,0.06700000166893006,-0.1289999932050705,-0.47600001096725466,0.828000009059906,0.3720000088214874,-0.21400000154972077,0.7910000085830689,-0.5059999823570252,0.460999995470047,0.014000000432133677,0.5730000138282776,-0.1340000033378601,-0.4110000133514405,0.9570000171661376,-0.4429999887943268,0.5950000286102295,0.28299999237060549,-0.009999999776482582,-0.6140000224113464,-0.703000009059906,-0.3379999995231629,-0.05400000140070915,0.3179999887943268,0.06300000101327896,0.27300000190734866,0.8809999823570252,-0.4729999899864197,0.9929999709129334,-0.6880000233650208,-0.9340000152587892,0.1940000057220459,0.15399999916553498,-0.3970000147819519,0.32899999618530276,0.8600000143051148,0.9990000128746032,0.20200000703334809,0.9120000004768372,-0.5849999785423279,0.3569999933242798,0.22599999606609345,-0.527999997138977,0.21199999749660493,-0.421999990940094,0.5740000009536743,-0.5849999785423279,-0.5809999704360962,-0.5899999737739563,-0.9290000200271606,0.878000020980835,0.36800000071525576,0.7049999833106995,0.753000020980835,0.8790000081062317,-0.7450000047683716,-0.21699999272823337,-0.6759999990463257,0.9100000262260436,-0.328000009059906,0.039000000804662707,0.968999981880188,0.2150000035762787,0.3659999966621399,0.3889999985694885,-0.6779999732971191,0.8450000286102295,0.19900000095367433,0.6200000047683716,-0.4569999873638153,0.16200000047683717,-0.8230000138282776,-0.7429999709129334,0.27000001072883608,0.6919999718666077,-0.453000009059906,-0.23399999737739564,-0.09000000357627869,0.4650000035762787,-0.6819999814033508,0.17800000309944154,-0.19099999964237217,0.23800000548362733,0.9589999914169312,0.46799999475479128,-0.01899999938905239,-0.7210000157356262,0.39899998903274538,-0.4410000145435333,-0.05999999865889549,0.8029999732971191,-0.4629999995231629,0.4699999988079071,-0.6460000276565552,0.5389999747276306,0.4189999997615814,-0.4830000102519989,0.5180000066757202,0.7269999980926514,-0.9470000267028808,-0.15700000524520878,-0.3779999911785126,0.04800000041723251,0.23499999940395356,0.6679999828338623,-0.39399999380111697,-0.44600000977516177,-0.386000007390976,-0.47699999809265139,0.5149999856948853,0.5360000133514404,-0.8510000109672546,0.6510000228881836,0.6800000071525574,0.2179999947547913,-0.3499999940395355,0.8009999990463257,0.8960000276565552,0.4339999854564667,-0.42899999022483828,-0.14100000262260438,-0.10000000149011612]}},"bias1":{"matrix":{"rows":1,"cols":15,"values":[0.0,0.0,0.0,0.0,0.0,0.0,0.0,0.0,0.0,0.0,0.0,0.0,0.0,0.0,0.0]}},"bias2":{"matrix":{"rows":1,"cols":15,"values":[0.0,0.0,0.0,0.0,0.0,0.0,0.0,0.0,0.0,0.0,0.0,0.0,0.0,0.0,0.0]}},"bias3":{"matrix":{"rows":1,"cols":15,"values":[0.0,0.0,0.0,0.0,0.0,0.0,0.0,0.0,0.0,0.0,0.0,0.0,0.0,0.0,0.0]}},"bias4":{"matrix":{"rows":1,"cols":15,"values":[0.0,0.0,0.0,0.0,0.0,0.0,0.0,0.0,0.0,0.0,0.0,0.0,0.0,0.0,0.0]}}}}}],"layerCount":2,"inputLayerId":0,"outputLayerId":1}}